0.000000000000000000e+00 -1.270484823050199941e+00
-1.954837190940864316e-03 -1.269364187548008172e+00
-3.147488745562922532e-03 -1.268209214417235886e+00
3.011743269706582040e-03 -1.267050777478661905e+00
1.467175383754481784e-03 -1.265917780587855868e+00
4.194140887982619574e-03 -1.264817670815153061e+00
-1.136051437888964356e-03 -1.263734371724831940e+00
-5.455641287908952544e-03 -1.262607691366338880e+00
-2.174649945864732745e-03 -1.261430989739597441e+00
-8.854682507485606494e-03 -1.260183007506640918e+00
4.366661908592218803e-03 -1.258904233942270245e+00
-1.924945271738802421e-03 -1.257638061815397057e+00
-1.034393910917942843e-03 -1.256350773261244447e+00
-8.346219752748348670e-04 -1.255049154632748465e+00
1.092990447930803624e-03 -1.253746469517836637e+00
-4.142910708376327730e-03 -1.252422153228522239e+00
9.205253136276431158e-04 -1.251075012302084399e+00
-3.425636636440560542e-03 -1.249709578330455040e+00
-7.147973537916017459e-03 -1.248275440724389007e+00
-5.043474015266553694e-03 -1.246762264915752150e+00
3.619016620987240761e-05 -1.245214680132893159e+00
5.186545959553086164e-03 -1.243696524446959328e+00
5.675027756187228309e-03 -1.242243211339735032e+00
6.956190540226214953e-05 -1.240823083756429357e+00
-4.356782869890948352e-03 -1.239373628158805474e+00
-3.159539223296578981e-03 -1.237874594496213287e+00
9.955747518894940071e-03 -1.236415159103502415e+00
-4.875022248029520222e-03 -1.234984992942066206e+00
-5.728965977194038287e-03 -1.233486175847095634e+00
-2.380313860226847766e-04 -1.231947470391528299e+00
-3.146441369701877874e-03 -1.230385011863825540e+00
6.632848130342669166e-03 -1.228841583458871511e+00
3.397169588263051782e-03 -1.227358245355077093e+00
6.212968925499947649e-03 -1.225932517477989148e+00
5.510039906392923820e-03 -1.224577773494386124e+00
1.019640438971383374e-03 -1.223261791131500686e+00
-4.206894433421259905e-03 -1.221924029167445802e+00
-2.416268515249250879e-03 -1.220542992014792771e+00
-3.968183697739541618e-03 -1.219120148313254548e+00
-3.998817285569604418e-03 -1.217645570145816869e+00
5.408258036214818459e-04 -1.216147310116249658e+00
-9.331220684489185263e-03 -1.214592179979514297e+00
-3.781205104040221039e-03 -1.212953023668586150e+00
-1.318722715237682268e-03 -1.211279752503555684e+00
2.044230373516033820e-03 -1.209608705741354706e+00
-3.861929799997073851e-03 -1.207924136073615484e+00
5.433155362460656166e-04 -1.206216629572131271e+00
1.789661960044044162e-03 -1.204521496443556883e+00
2.629010393804755499e-03 -1.202851838072153123e+00
-1.122019753959650062e-03 -1.201189613462084083e+00
-1.117994387405086935e-03 -1.199511478401929843e+00
-8.857240793395148790e-03 -1.197769234172791686e+00
4.448051366289676282e-03 -1.195997422211123817e+00
-9.589169737706126906e-03 -1.194191665892210485e+00
-3.866642714294845490e-03 -1.192299944191952621e+00
-3.607927089085314568e-03 -1.190359538076364743e+00
-5.713843819382494714e-03 -1.188358919795807767e+00
-2.978093430256960501e-03 -1.186301954467696262e+00
-5.027191667571845324e-03 -1.184192942065651177e+00
4.135983120783000115e-03 -1.182076201995757581e+00
-2.333639855897282935e-03 -1.179968737879944385e+00
4.277352060813326487e-03 -1.177871457039441072e+00
-3.137711702613311341e-03 -1.175779543890257850e+00
-3.586580611982019984e-03 -1.173643980962544520e+00
3.355401459927182320e-03 -1.171505268659729149e+00
-1.180379958334048032e-03 -1.169378584655581976e+00
-3.862887624927110672e-03 -1.167218989191711298e+00
1.367597374124157779e-03 -1.165042387872736951e+00
-3.175819093178321260e-03 -1.162853203068329400e+00
1.431822344353003360e-02 -1.160732190480357584e+00
3.387481985536939730e-03 -1.158720603411406369e+00
-2.848472520241190735e-03 -1.156711497791750975e+00
4.533122688464357244e-03 -1.154712029581417720e+00
-9.243358320257631308e-03 -1.152682491981828372e+00
1.660196645532755573e-03 -1.150604913726593459e+00
3.638824999333894854e-03 -1.148559740251321903e+00
-3.721169573699908192e-03 -1.146513541745035170e+00
-3.095485200944532531e-03 -1.144424363772365449e+00
1.170838806595371484e-02 -1.142388436253928274e+00
3.909200873080965859e-03 -1.140449609727753444e+00
3.786045940814594668e-03 -1.138558516314741809e+00
-6.739531249557344401e-03 -1.136648850310171488e+00
-3.846663024913276902e-03 -1.134673042589324110e+00
-4.888178142983383781e-03 -1.132642732355798376e+00
5.423530544347581958e-03 -1.130615761314591738e+00
4.671669141151305743e-03 -1.128651834859111691e+00
-6.245647748942513913e-04 -1.126713298897166649e+00
1.069601599028545809e-04 -1.124771727617648764e+00
1.276535973383897005e-03 -1.122839033352954541e+00
2.215802765338646847e-03 -1.120928415996317540e+00
2.845972821845196062e-03 -1.119049699974846712e+00
6.346390176649241606e-03 -1.117228650317016569e+00
1.815484068967582968e-03 -1.115458858200382597e+00
2.713601547600393796e-03 -1.113717663730311447e+00
1.178536761282722618e-03 -1.112001114081588193e+00
5.261032658238414417e-04 -1.110295588195253869e+00
6.261020032897545752e-03 -1.108632772358713714e+00
-2.630554637995643954e-03 -1.106993004009205084e+00
5.626749389674149835e-04 -1.105340761344874245e+00
3.949982219934775572e-04 -1.103694958389873859e+00
3.334246972340761204e-03 -1.102072887852768135e+00
