2.505814792401572615e-04 -6.006294237762610511e-02
-1.899176251215185449e-02 -5.753476682224985261e-02
-2.073971826588531450e-02 -5.478884084919755093e-02
6.670598314187936324e-04 -5.194812807426542334e-02
3.950636499689736195e-03 -4.916661199669976334e-02
-3.436905371457266850e-02 -4.622592768043547878e-02
-3.638394032623814113e-04 -4.309957930026152989e-02
-1.581884781330477469e-02 -3.990352862327509187e-02
-1.352468720910941606e-02 -3.655595847583144320e-02
1.623204388434361378e-02 -3.325682219065482365e-02
2.539630192732176758e-02 -3.024836587067303295e-02
-1.517696284350398758e-02 -2.733424387494248070e-02
3.622698743243377151e-03 -2.437860468475181591e-02
1.792033071544074305e-02 -2.158765558018584108e-02
-1.189841091706986091e-02 -1.886431319382524466e-02
2.227093424654743442e-02 -1.623549213809913350e-02
-3.840792242376601245e-02 -1.353585066293775535e-02
-7.728790828357817375e-03 -1.057871825123865399e-02
1.919751577578544116e-02 -7.723461930244394577e-03
5.965508238417778497e-02 -5.389450717800337021e-03
1.791426469377000938e-02 -3.567378819193465188e-03
1.516167317636146587e-02 -1.978869520818165792e-03
-1.844304722772483612e-02 -3.969113540714290858e-04
3.455815824531293604e-03 1.251416653155557838e-03
-3.989591302322092331e-02 3.099554621739293320e-03
1.353550545692828490e-02 5.084240172099628238e-03
-4.949751468986549746e-03 6.987515389338352055e-03
-4.412292128872771779e-02 9.168684969128440554e-03
4.538734583742083314e-03 1.156798404388696862e-02
1.285917415496553792e-02 1.383001897561343674e-02
-1.161298031420196671e-02 1.605574014848979575e-02
-2.442908017653745711e-02 1.847747644581844428e-02
-3.049705353323298174e-02 2.121236258149902104e-02
-5.059937992228587950e-03 2.413901201925045675e-02
3.138516189058818823e-02 2.687158025576009274e-02
2.101117350348468554e-02 2.924820121840192300e-02
1.377497355402045563e-02 3.137944064007694434e-02
-4.000544083727061717e-02 3.364590454038084849e-02
-4.850193816499155652e-03 3.616324591804122301e-02
2.766628062214904205e-02 3.850939764045695213e-02
1.105775115864027040e-02 4.058570984212943322e-02
4.240193249959558000e-03 4.253873445878253445e-02
-9.432198575765849205e-03 4.449636852946446675e-02
-2.053584735024454808e-02 4.661288096853304086e-02
-1.932043043175371219e-02 4.894944826012349870e-02
1.955570071344982577e-02 5.125584383909267960e-02
4.029457984512645891e-02 5.316087747070509517e-02
-1.670993526223892717e-02 5.489139979896296567e-02
-1.176511317152642219e-02 5.677205780294949933e-02
2.415034254564118847e-03 5.868337241016641920e-02
7.513197578076821759e-03 6.050520680445068550e-02
-4.974104775534417960e-03 6.228379933662254314e-02
-3.651145781784864708e-02 6.429342444709336413e-02
-9.439263472558814816e-03 6.656130865816464737e-02
-1.195801361766055809e-02 6.893389698628454854e-02
-1.442503910087081925e-02 7.144198160750100945e-02
2.020566394566294249e-02 7.388492478672843700e-02
-1.815969772925166842e-02 7.628615412040642974e-02
-1.923620324556462105e-02 7.889141035602510732e-02
-1.621973443416954708e-02 8.168810375160912018e-02
-2.370543662029151247e-03 8.457071893157480647e-02
-3.365466083143220377e-02 8.764761694137279679e-02
1.166058102002910310e-02 9.083093057848018459e-02
2.397673223788955935e-02 9.376148401333507520e-02
1.998740256355951376e-03 9.650007949953157138e-02
-3.013816563757467509e-02 9.938420743637585431e-02
2.547831526182407075e-02 1.022672813042650036e-01
1.322056362575898397e-02 1.048792818436106444e-01
8.438352756577007299e-03 1.073270103287341237e-01
3.312042636961929232e-03 1.096725849340774439e-01
8.352117474064734565e-03 1.119167937826787834e-01
-2.347991582518739115e-02 1.142267392631863554e-01
-2.989002131296696063e-02 1.168404166266794331e-01
-1.949072728503709398e-02 1.197322226716715510e-01
3.760596788598852269e-02 1.224811182320146574e-01
-2.553229590493395675e-03 1.249819804391207045e-01
-2.627582229099375416e-02 1.276332671073658054e-01
1.294783820216924113e-02 1.303380678545355276e-01
3.803861397826388546e-02 1.326957188669416754e-01
-3.363612124252654545e-02 1.349971968928231347e-01
8.964162375655226889e-03 1.374237062460713643e-01
2.159996961625827716e-02 1.396309365127290925e-01
-9.477312715150825601e-03 1.417342796512321146e-01
1.732317313339311890e-03 1.438577216975960860e-01
-3.558988175797171000e-02 1.461638344250882071e-01
-1.298766002982573893e-02 1.487438376668049067e-01
1.982007726100280039e-04 1.513741704281664213e-01
5.629428658900549262e-03 1.539387684220711594e-01
-4.165980751203855748e-02 1.566984854476074773e-01
1.560806507367680333e-02 1.595907115318906389e-01
-3.466628293850796544e-02 1.625715907907346602e-01
-1.747982760416298860e-03 1.657490174478033762e-01
-2.176902364304235393e-02 1.690422101470562266e-01
1.947653531971872687e-02 1.723187347967561622e-01
1.108410069395970952e-03 1.754361971377902119e-01
1.590170445021932624e-02 1.784172981519629997e-01
-1.686656191608340224e-02 1.813743616744275533e-01
-1.994266185417863102e-02 1.845307182441766058e-01
4.180426693564726764e-02 1.875205321334633135e-01
-1.527281758872271050e-02 1.903151800780648051e-01
2.899177824366387310e-02 1.929949843802863385e-01
